<?xml version="1.0"?>
<opencv_storage>
<testthing type_id="opencv-haar-classifier">
  <size>
    30 30</size>
  <stages>
    <_>
      <!-- stage 0 -->
      <trees>
        <_>
          <!-- tree 0 -->
          <_>
            <!-- root node -->
            <feature>
              <rects>
                <_>
                  0 2 30 26 -1.</_>
                <_>
                  10 2 10 26 3.</_></rects>
              <tilted>0</tilted></feature>
            <threshold>3.3496809005737305e-001</threshold>
            <left_val>-9.1578948497772217e-001</left_val>
            <right_val>8.2857137918472290e-001</right_val></_></_>
        <_>
          <!-- tree 1 -->
          <_>
            <!-- root node -->
            <feature>
              <rects>
                <_>
                  9 1 16 21 -1.</_>
                <_>
                  9 8 16 7 3.</_></rects>
              <tilted>0</tilted></feature>
            <threshold>7.5582101941108704e-002</threshold>
            <left_val>-9.2725992202758789e-001</left_val>
            <right_val>6.4707577228546143e-001</right_val></_></_></trees>
      <stage_threshold>-2.6871371269226074e-001</stage_threshold>
      <parent>-1</parent>
      <next>-1</next></_>
    <_>
      <!-- stage 1 -->
      <trees>
        <_>
          <!-- tree 0 -->
          <_>
            <!-- root node -->
            <feature>
              <rects>
                <_>
                  0 14 30 2 -1.</_>
                <_>
                  10 14 10 2 3.</_></rects>
              <tilted>0</tilted></feature>
            <threshold>4.4342990964651108e-002</threshold>
            <left_val>-8.3157891035079956e-001</left_val>
            <right_val>7.5238102674484253e-001</right_val></_></_>
        <_>
          <!-- tree 1 -->
          <_>
            <!-- root node -->
            <feature>
              <rects>
                <_>
                  12 1 18 12 -1.</_>
                <_>
                  12 7 18 6 2.</_></rects>
              <tilted>0</tilted></feature>
            <threshold>7.0622209459543228e-003</threshold>
            <left_val>-9.4904470443725586e-001</left_val>
            <right_val>3.4783059358596802e-001</right_val></_></_>
        <_>
          <!-- tree 2 -->
          <_>
            <!-- root node -->
            <feature>
              <rects>
                <_>
                  12 9 6 21 -1.</_>
                <_>
                  15 9 3 21 2.</_></rects>
              <tilted>0</tilted></feature>
            <threshold>-7.4295429512858391e-003</threshold>
            <left_val>6.0094308853149414e-001</left_val>
            <right_val>-8.3793842792510986e-001</right_val></_></_></trees>
      <stage_threshold>1.1719480156898499e-001</stage_threshold>
      <parent>0</parent>
      <next>-1</next></_>
    <_>
      <!-- stage 2 -->
      <trees>
        <_>
          <!-- tree 0 -->
          <_>
            <!-- root node -->
            <feature>
              <rects>
                <_>
                  0 0 18 9 -1.</_>
                <_>
                  9 0 9 9 2.</_></rects>
              <tilted>0</tilted></feature>
            <threshold>2.8439780697226524e-002</threshold>
            <left_val>-1.</left_val>
            <right_val>6.4609062671661377e-001</right_val></_></_></trees>
      <stage_threshold>6.4609062671661377e-001</stage_threshold>
      <parent>1</parent>
      <next>-1</next></_>
    <_>
      <!-- stage 3 -->
      <trees>
        <_>
          <!-- tree 0 -->
          <_>
            <!-- root node -->
            <feature>
              <rects>
                <_>
                  5 0 12 24 -1.</_>
                <_>
                  5 8 12 8 3.</_></rects>
              <tilted>0</tilted></feature>
            <threshold>1.0403060168027878e-001</threshold>
            <left_val>-1.</left_val>
            <right_val>9.7044378519058228e-001</right_val></_></_>
        <_>
          <!-- tree 1 -->
          <_>
            <!-- root node -->
            <feature>
              <rects>
                <_>
                  16 0 14 19 -1.</_>
                <_>
                  16 0 7 19 2.</_></rects>
              <tilted>0</tilted></feature>
            <threshold>1.6700940206646919e-002</threshold>
            <left_val>-1.</left_val>
            <right_val>9.3269437551498413e-001</right_val></_></_>
        <_>
          <!-- tree 2 -->
          <_>
            <!-- root node -->
            <feature>
              <rects>
                <_>
                  0 0 2 1 -1.</_>
                <_>
                  1 0 1 1 2.</_></rects>
              <tilted>0</tilted></feature>
            <threshold>0.</threshold>
            <left_val>0.</left_val>
            <right_val>-1.</right_val></_></_>
        <_>
          <!-- tree 3 -->
          <_>
            <!-- root node -->
            <feature>
              <rects>
                <_>
                  18 0 12 17 -1.</_>
                <_>
                  18 0 6 17 2.</_></rects>
              <tilted>0</tilted></feature>
            <threshold>8.5269333794713020e-003</threshold>
            <left_val>-1.</left_val>
            <right_val>9.0640532970428467e-001</right_val></_></_>
        <_>
          <!-- tree 4 -->
          <_>
            <!-- root node -->
            <feature>
              <rects>
                <_>
                  0 0 2 1 -1.</_>
                <_>
                  1 0 1 1 2.</_></rects>
              <tilted>0</tilted></feature>
            <threshold>0.</threshold>
            <left_val>0.</left_val>
            <right_val>-1.</right_val></_></_>
        <_>
          <!-- tree 5 -->
          <_>
            <!-- root node -->
            <feature>
              <rects>
                <_>
                  14 0 16 12 -1.</_>
                <_>
                  14 0 8 12 2.</_></rects>
              <tilted>0</tilted></feature>
            <threshold>3.5332320258021355e-003</threshold>
            <left_val>-1.</left_val>
            <right_val>8.4732198715209961e-001</right_val></_></_>
        <_>
          <!-- tree 6 -->
          <_>
            <!-- root node -->
            <feature>
              <rects>
                <_>
                  0 0 2 1 -1.</_>
                <_>
                  1 0 1 1 2.</_></rects>
              <tilted>0</tilted></feature>
            <threshold>-7.4469432001933455e-004</threshold>
            <left_val>0.</left_val>
            <right_val>-1.</right_val></_></_>
        <_>
          <!-- tree 7 -->
          <_>
            <!-- root node -->
            <feature>
              <rects>
                <_>
                  14 0 16 12 -1.</_>
                <_>
                  14 0 8 12 2.</_></rects>
              <tilted>0</tilted></feature>
            <threshold>3.5332320258021355e-003</threshold>
            <left_val>-1.</left_val>
            <right_val>8.8519179821014404e-001</right_val></_></_>
        <_>
          <!-- tree 8 -->
          <_>
            <!-- root node -->
            <feature>
              <rects>
                <_>
                  0 0 2 1 -1.</_>
                <_>
                  1 0 1 1 2.</_></rects>
              <tilted>0</tilted></feature>
            <threshold>-7.4469432001933455e-004</threshold>
            <left_val>0.</left_val>
            <right_val>-1.</right_val></_></_>
        <_>
          <!-- tree 9 -->
          <_>
            <!-- root node -->
            <feature>
              <rects>
                <_>
                  16 10 12 20 -1.</_>
                <_>
                  16 20 12 10 2.</_></rects>
              <tilted>0</tilted></feature>
            <threshold>-8.6184078827500343e-003</threshold>
            <left_val>9.5594787597656250e-001</left_val>
            <right_val>-1.</right_val></_></_></trees>
      <stage_threshold>1.4980050325393677e+000</stage_threshold>
      <parent>2</parent>
      <next>-1</next></_>
    <_>
      <!-- stage 4 -->
      <trees>
        <_>
          <!-- tree 0 -->
          <_>
            <!-- root node -->
            <feature>
              <rects>
                <_>
                  3 0 18 21 -1.</_>
                <_>
                  3 7 18 7 3.</_></rects>
              <tilted>0</tilted></feature>
            <threshold>1.1177829653024673e-001</threshold>
            <left_val>-1.</left_val>
            <right_val>3.7931069731712341e-001</right_val></_></_>
        <_>
          <!-- tree 1 -->
          <_>
            <!-- root node -->
            <feature>
              <rects>
                <_>
                  0 12 30 13 -1.</_>
                <_>
                  10 12 10 13 3.</_></rects>
              <tilted>0</tilted></feature>
            <threshold>1.2289670109748840e-001</threshold>
            <left_val>-1.</left_val>
            <right_val>2.8484570980072021e-001</right_val></_></_></trees>
      <stage_threshold>6.6415637731552124e-001</stage_threshold>
      <parent>3</parent>
      <next>-1</next></_>
    <_>
      <!-- stage 5 -->
      <trees>
        <_>
          <!-- tree 0 -->
          <_>
            <!-- root node -->
            <feature>
              <rects>
                <_>
                  6 12 9 14 -1.</_>
                <_>
                  6 19 9 7 2.</_></rects>
              <tilted>0</tilted></feature>
            <threshold>-3.0823539942502975e-002</threshold>
            <left_val>5.1351392269134521e-001</left_val>
            <right_val>-9.4326359033584595e-001</right_val></_></_>
        <_>
          <!-- tree 1 -->
          <_>
            <!-- root node -->
            <feature>
              <rects>
                <_>
                  25 0 4 26 -1.</_>
                <_>
                  25 13 4 13 2.</_></rects>
              <tilted>0</tilted></feature>
            <threshold>1.7444120021536946e-004</threshold>
            <left_val>-4.1211318969726563e-001</left_val>
            <right_val>2.4868209660053253e-001</right_val></_></_>
        <_>
          <!-- tree 2 -->
          <_>
            <!-- root node -->
            <feature>
              <rects>
                <_>
                  2 1 3 26 -1.</_>
                <_>
                  2 14 3 13 2.</_></rects>
              <tilted>0</tilted></feature>
            <threshold>3.7372121005319059e-004</threshold>
            <left_val>-8.3906412124633789e-001</left_val>
            <right_val>5.0235217809677124e-001</right_val></_></_>
        <_>
          <!-- tree 3 -->
          <_>
            <!-- root node -->
            <feature>
              <rects>
                <_>
                  17 9 10 2 -1.</_>
                <_>
                  22 9 5 1 2.</_>
                <_>
                  17 10 5 1 2.</_></rects>
              <tilted>0</tilted></feature>
            <threshold>1.2793079949915409e-003</threshold>
            <left_val>-3.9233121275901794e-001</left_val>
            <right_val>4.4471120834350586e-001</right_val></_></_>
        <_>
          <!-- tree 4 -->
          <_>
            <!-- root node -->
            <feature>
              <rects>
                <_>
                  3 9 10 2 -1.</_>
                <_>
                  3 9 5 1 2.</_>
                <_>
                  8 10 5 1 2.</_></rects>
              <tilted>0</tilted></feature>
            <threshold>2.4234899319708347e-004</threshold>
            <left_val>-7.9994511604309082e-001</left_val>
            <right_val>6.6919112205505371e-001</right_val></_></_>
        <_>
          <!-- tree 5 -->
          <_>
            <!-- root node -->
            <feature>
              <rects>
                <_>
                  14 0 15 18 -1.</_>
                <_>
                  14 6 15 6 3.</_></rects>
              <tilted>0</tilted></feature>
            <threshold>1.2333240360021591e-002</threshold>
            <left_val>-9.9591147899627686e-001</left_val>
            <right_val>2.7639308571815491e-001</right_val></_></_>
        <_>
          <!-- tree 6 -->
          <_>
            <!-- root node -->
            <feature>
              <rects>
                <_>
                  7 4 14 6 -1.</_>
                <_>
                  7 6 14 2 3.</_></rects>
              <tilted>0</tilted></feature>
            <threshold>9.8674762994050980e-003</threshold>
            <left_val>-8.8982129096984863e-001</left_val>
            <right_val>8.9742672443389893e-001</right_val></_></_></trees>
      <stage_threshold>-4.1343629360198975e-001</stage_threshold>
      <parent>4</parent>
      <next>-1</next></_>
    <_>
      <!-- stage 6 -->
      <trees>
        <_>
          <!-- tree 0 -->
          <_>
            <!-- root node -->
            <feature>
              <rects>
                <_>
                  0 21 30 5 -1.</_>
                <_>
                  15 21 15 5 2.</_></rects>
              <tilted>0</tilted></feature>
            <threshold>-7.3755050834733993e-005</threshold>
            <left_val>6.9491547346115112e-001</left_val>
            <right_val>-1.</right_val></_></_></trees>
      <stage_threshold>6.9491547346115112e-001</stage_threshold>
      <parent>5</parent>
      <next>-1</next></_>
    <_>
      <!-- stage 7 -->
      <trees>
        <_>
          <!-- tree 0 -->
          <_>
            <!-- root node -->
            <feature>
              <rects>
                <_>
                  0 0 30 24 -1.</_>
                <_>
                  0 0 15 12 2.</_>
                <_>
                  15 12 15 12 2.</_></rects>
              <tilted>0</tilted></feature>
            <threshold>-1.6390030086040497e-001</threshold>
            <left_val>-9.4736838340759277e-001</left_val>
            <right_val>5.8064532279968262e-001</right_val></_></_>
        <_>
          <!-- tree 1 -->
          <_>
            <!-- root node -->
            <feature>
              <rects>
                <_>
                  20 9 2 3 -1.</_>
                <_>
                  20 9 1 3 2.</_></rects>
              <tilted>0</tilted></feature>
            <threshold>2.6369988918304443e-003</threshold>
            <left_val>-2.5679600238800049e-001</left_val>
            <right_val>8.4670001268386841e-001</right_val></_></_></trees>
      <stage_threshold>-1.0066840052604675e-001</stage_threshold>
      <parent>6</parent>
      <next>-1</next></_></stages></testthing>
</opencv_storage>
